-0.9033423241130374, 0.7303179884886529, 1.3752963165401542, 0.21206981115826662, -0.7937078560548645, 2.969125749708335, 
-0.2969721877160295, -0.5448777630101818, -0.8099140609045349, -1.0424599099078375, -0.915735274905371, 0.07641678888784408, 
0.31790903243212554, -1.2481725210028962, 0.25056215811379595, 0.7316527330374683, 0.3642123712639167, 0.1540188719158811, 
-0.5520059747684899, -1.92847193103266, -0.8790269901081373, 0.6289052894750443, 1.3455320102188912, 1.3878032619473148, 
-0.07924088120229494, -0.35760147466168574, -0.10212755034457979, 1.7841348248858646, -1.1991003610417938, 0.9812858535952055, 
0.023263620345960308, -0.04396438004090261, 1.7680989810576562, -0.549660585514868, 0.8797782522149612, 0.3112982237213071, 
-0.7411838262428893, 1.0717398534366094, -1.2628274155636652, 0.8065653605874442, -0.43961568934975764, -1.0435021019534647, 
0.6157485178976987, 0.3578596562666453, 0.08632272338170044, -0.22898089011884698, -0.4763051781360147, 1.6535702124993423, 
0.6213527284155855, 1.6129548493612906, 0.9920117428740436, 0.3904888867849075, 0.7483972310239535, 1.9162600954462397, 
1.8185201220686598, 0.9927318883391638, -0.3347657156685094, -0.15583708409629815, -2.3992326109862576, 0.3358699071436306, 
0.13798730705262624, -1.2198536214674192, 2.2983372806278144, -2.3014061322189474, -0.025733024598880765, -1.435768546704352, 
0.01726825821844369, 0.7593639065277974, -0.734520330538817, 1.1016119539194238, -1.635251003989609, -0.743353366324111, 
0.9544131423633725, -0.26324749045995927, 0.38125666512499945, 0.9974318837695022, -0.48707911976021234, 0.970888513296564, 
0.9670953275763176, 0.3662847703983315, -2.1860270829475845, -0.6132860309193175, -1.7417770785870546, 2.2265370474245505, 
-0.2816630469601617, -0.9592905327668176, 0.5687520155311785, -0.42420869316901255, 1.9775476908800385, -0.31916441124555917, 
-0.22207757147486518, -0.41589021951832006, -0.3808859893641699, 0.6292722262183958, -0.4923481117001337, 1.3789669131353273, 
-1.8714666394141992, -0.2868518488291181, -0.7535740499636209, 1.4608207674003, -1.2142954617049941, 1.2336272510727646, 
1.310398020985173, -0.14854391675572673, 0.6661427288676081, 0.284680028207761, 1.2288881620743182, 0.5391480179840197, 
0.11918342050694991, -1.708888760320745, -0.17792634602564422, -0.4644176039173411, -0.14046624003269714, 0.20227693782021441, 
-0.028973572309662264, -0.11373871304027622, 0.654093068646965, -1.0507712743506616, 1.7630936886349375, -1.6714797430612898, 
-0.16815646862865924, -1.3333617444082735, -0.672703324647697, 1.234001967408995, -1.7585766338899638, 1.0861004132881749, -1.8209242319028014, -0.4754491649911153, 0.29714588288591065, 2.381929633561723, 0.27091558835860724, -0.22275447252165412, -1.1359024580799386, -1.195021344182146, -0.5660481148437894, 0.3426507279924009, 0.603589336715771, -1.6872065532901388, -1.5366443846141118, -0.013523222451068921, -1.155705303319362, 
-1.9697923363585674, 0.13987522680554437, -1.4114613481271885, -0.4465686740661089, 0.6574702195411121, 0.5220489179028832, 0.5289790016388735, -0.720632996389035, 1.4216028776330887, -0.8998786498908536, -0.25070294594631537, 0.2881726186543436, -1.5747027133901519, -0.2290031579060268, 0.3354595551875728, 1.5499696061634574, 0.17139433792613645, 0.283808746642464, -0.7285946738620009, -0.41636966090767324, 0.41625689079886763, 
-1.1182129058903116, -0.6993193243643593, -1.3647733528848693, 0.6255193144286958, -0.01417606367329277, 1.0562794784165526, 3.0364389009601944, -0.7756772857877235, -0.8851622138339788, -0.4525567521361035, -1.9638592677043192, 0.16842333710066876, 0.29496905531080625, 1.4109293838851245, -0.4251120702966779, 1.5132820184958848, -1.399162823935479, -0.24839562194088227, 0.16083515438460214, 1.6689193768751518, -0.8395772479113899, 
1.192632204470846, 0.9649441628389988, 2.203908693377553, 1.1906342885186907, 0.19270970530307444, -0.29314440504262756, 0.31435399225410426, 1.7974559351970214, -0.16677245127620335, 0.22440428275028773, 0.4412684013602095, -0.0680014518573452, -0.6170104246163599, 0.2655172740814009, -0.31969568716466146, -1.3124447413756146, -0.24918438330677112, -1.6544124896741121, -0.02644269834118414, 0.44314324146268635, 0.1599604799003637, 
-1.62643074836066, 0.20748206698317756, -0.0892987920909414, -1.68166827010206, 0.5915626840093382, -0.8209722759907256, 0.3465290424837698, 0.7635765246418449, -0.44202888774975074, -1.932737686942956, -0.04073696690880203, 0.426074359798893, 0.21187536079945737, -1.0226529589678357, -0.08247383521218783, 1.257397633759116, 0.024222736536421985, 0.6524544877974462, 0.6196031065543527, 1.5370436325982644, 0.01697566247971609, 
0.5348089339898101, -2.1280148199815043, 0.05665795983411787, -0.22140044407916287, 1.2035910278382762, 0.5782236140286628, 0.45595215308686066, 0.6657845643761655, -0.31780373459389233, 0.9817322283456275, 0.9606263739131458, -0.49125541200984346, 0.8454211910323016, -0.20048984373379922, -1.744304723780169, -1.4477800552866318, 1.553416764580291, 0.2884322410534628, -0.7445696516943666, 0.5341112153280753, -0.012249806111398902, 
-0.40258831933000994, -0.10727843280739476, 2.6012472524368495, -0.3030685985934141, -0.8098637494777836, 0.36492614705554943, 0.1103368401183674, 1.077429073481756, -0.7418123484510378, 1.8347535643507618, 1.2996663399214512, 1.1055546912815053, -0.6899875978017087, -0.41819590494626446, -0.5364182931944155, 1.0969296305968328, 0.5993382592741193, -0.7907399652103302, -1.2549093894969854, -1.1848674769400789, -0.310949199481378, 
0.7637893737300953, -1.2648074373541471, -0.5807238468323223, 0.2527495814970282, -0.647252034952266, 0.09830740300816962, -1.001940516731401, 0.8898623221501851, -0.188221826972665, 0.06520277553649138, 0.31873639609758814, -0.6831096141291069, -0.9561117271413757, 0.6963091588505397, -1.5127455789293414, 1.736853022920174, 1.7345920399680248, -0.06858254772060075, -1.2581255387533627, 1.021687987577552, 0.9028420277597117, 
0.731188389497781, -0.2839221194648929, 1.7515111729517827, 0.9550514076396897, -0.2332017802604698, -0.1959650240065604, -0.9421039839486726, -1.055162891852225, 0.032902448054717114, 0.2250210662826032, -1.166012387581044, -0.5421363141923119, 0.4558924060902203, 0.38638443294741626, -0.3105798586557264, 0.1750837690933257, -0.5532544962938901, -1.3452071189905317, 0.527150432241197, 0.6499331976176494, 0.476963598368886, 
-0.5646633676368185, 0.2996151086309449, 1.28804878387994, 1.6673984682907508, -0.6831494727204673, -1.0354008091795268, -0.072067736491844, -0.1712066580517058, -1.0871909535073812, 0.6633832107741573, 0.33897187897099457, -0.5378425395544274, 1.7003057545325684, 2.1083599230868812, 1.5802387571806753, 1.485473687519097, 0.6895363289002099, -0.3402794116487393, 0.035971544226356414, -1.0275747800704813, 0.5378646198848309, 
-0.860102411002201, -0.5948470625945683, -1.1750564809222803, -0.7096365686525907, -1.3666882817665105, -0.7280235033564897, 1.8725526950524114, -0.7815131010423755, 0.5078161770550483, 1.3563137065877646, 0.05386510418889212, -1.7029516365866724, 1.9598731612342661, 0.08432937985974376, -0.7616086114766784, 0.05584457532368433, 1.1585617689329148, 1.2644453598691483, 0.4188120451729912, -0.7265959996710382, 0.1908912309185163, 
-1.9042464610616026, 0.7329822180200231, 0.03767575514716892, 0.7982649814404035, -0.162096122119258, -0.45192138676792787, -1.4702174705306108, 0.9922656054201272, -0.2052349499936364, -2.795784745668845, 0.5606537211507674, 0.295866916006414, -0.6750967663309497, -0.20875343672241758, -0.4604764427398074, 1.1716419729487535, 0.7513694733702216, -2.342997534673932, -0.34673195496961134, -1.29048520908025, -0.35089832095997703, 
1.8712191508064182, 2.7359185239252373, 0.7163251634213597, -1.3657421891272246, -0.6122343508064245, -0.6425648821695463, 0.9201876770871436, -0.6263631263044175, -0.41728854775331536, 1.211960341845535, -0.3219872121593991, -0.7890272027534141, 0.39966962189064215, -0.9778939994151442, 1.2229896339332902, -0.19811571354979698, -1.9024709784937381, 0.09426305856596022, 0.6164132205491867, 0.13349230530915465, -1.5522454115644582, 
1.2180116444718758, -2.20934305123166, 1.2922544152356494, -0.3768149680643842, -0.3642913462745021, -0.032415415962143763, -0.3673995439636138, 1.2345452645751736, -1.503736680852272, -0.11373747119457464, -0.4852134052442546, -0.8786091547654117, 0.08592215124786136, -2.05661109395306, 0.7660926291704159, 1.2386705413808317, 1.030324359686499, -0.28649977779294405, -0.437781043938113, 0.3517424482222556, 0.38829175479550765, 
0.5861097682003649, 1.0854155975905473, 1.118554271056405, -0.5941973178353454, -2.1405296582181976, -1.6135800731311356, -0.11873599562903442, 0.15469746676228496, 1.4740090665559322, 1.0977316558400099, -1.3749582120709911, -0.7698864137406034, -0.32541090906316567, -0.56521247280524, -0.09634204937205848, 0.4211062609427337, 0.6350997151170351, 0.2693097373238589, -0.6604457908812279, -0.308944718236599, -1.6015381517548508, 
-0.3961835667338411, -0.15444816320104038, 0.4424636585695361, -1.3522667606645296, 0.44857547527304975, 0.2649462720736767, 0.3876868130461589, 1.1388546760427645, 0.29437111695358775, 1.357066185775089, -1.6365999423248603, 0.28171358536683855, -0.3814258886471585, -0.9598710282515214, 0.7174102443718708, 2.4036936412200114, -1.3267205135757885, 0.37939470151489624, 0.2558439660751486, 1.1934339834559065, -0.46922030549466565, 
1.479743786821604, 0.42211048324951994, -1.2921879996230319, 0.9595878996584781, 0.39861024631817604, 2.289984669179323, -0.033045400696626585, -0.7425296705069322, -1.3356764745700023, -1.8622428359034413, -1.2193331869397845, -0.7575852201914843, 0.3650865476773092, 0.48411695359635837, 0.3066086446802663, 0.7024760826846744, -1.5392171581574257, -0.6994978882231611, 0.918264123532815, -0.8288943078865993, 0.48550418458695627, 
0.9182885770454037, -0.32099634686425965, -1.1806686003810132, -0.07906460706088005, -0.07956266646030663, -0.842796321456455, 1.1497870746805192, -2.9498436034895867, -0.9566601627946377, 0.4238656378380039, 0.7962978326881196, 1.0588886974751515, -0.615238189629251, 0.5511978643002468, 0.6645244211198729, -0.315726782400947, -0.04041471042665906, -0.12958355555653112, 1.2704215072791134, 0.13628281095991793, -2.0666171600434846, 
-0.5030697880086167, -0.38125410658707326, 0.513238875569875, 0.05366215171931643, -0.5247068314977563, 0.518994208675158, -0.8180650844413944, 1.7196328456545358, -0.16287681921503142, 0.6979678417010768, -1.2708557391149846, -0.9880637005720064, -0.1772095774315497, -1.1449751849985565, -0.2826414634689674, 1.1068606157624155, -0.7228207200394915, 0.6086139409809409, 0.6512634293624203, 
0.2674868487918317, 0.5909259134825536, -0.3401441007281286, -0.5064159681130637, -0.05254949961141505, -2.8558058206175216, -0.8192643594658192, 0.3446056575713493, 0.14456593673896592, -0.5955888708681673, 0.7927787908649165, -0.2925117679691123, 1.204567624247505, 1.1176298522521695, 3.2173380903551347, 0.965046281771659, -0.1558566291702961, 0.11869321990845934, -0.15091514266726452, 
1.5898174898499682, -0.015948264509860623, 0.5472272848250855, -1.227596422299162, 0.25307165378393914, -0.29818362996381453, -0.9416576324611946, -0.8506280075917663, 2.357660392260611, 3.251379497512821, 0.0014205906217087713, 1.3282845594248225, 0.39561068689610546, 1.5346547857075967, -0.2778808650418085, -0.3647024501453885, -0.05043994291628331, 0.28177668201136824, -1.1872674317002059, 
0.9916886040791688, 0.3200012163719773, -0.7627053473113987, -0.6420521189553345, -1.7597526387893137, -0.002506392257927385, -0.13081951606288234, 1.144253605499071, -0.3702188260131919, -1.0697611376144562, -0.6539208962650671, 0.6780045749690765, -0.026781672641828295, -0.0854033822292633, -0.7169722851546875, 0.6054360765491809, -1.6493009573113129, 0.6517076669004658, -2.8111352016506412, 
0.36137485154589444, 1.5026568812539536, -0.6539548492216318, -1.5029306138140965, 0.1639921426577177, 0.027701469990473664, 1.2682345766563932, -0.8295647593602927, 0.25340009041872197, -0.5521602634357383, -0.5790084057420101, -0.3846667554419332, -1.0656900688259934, -0.8439646703787914, 0.25355263057330407, 0.3961489103792579, 1.3300477243157733, 0.10619403858893343, 0.5538296508396485, 
-1.1827470034159995, 1.9438727063829662, 1.0189002315985003, 0.06336568158694512, 1.3577835739966893, -1.4983060549341538, 0.20357256828892772, -0.1163941759655596, 0.5736061350713185, -0.7299509433200486, -0.955581606580325, -0.6781001939221603, -0.2309713517771909, -1.6898491489519094, 1.4278426585298947, 0.12673034340176884, 0.4773591443605956, -0.858747907210874, 1.262177156195901, 
-2.7705324452116624, 0.1619488151012088, 0.2945599298582113, 0.03648439149594548, -0.9035588815013257, -1.9430755524899563, 1.5555123775656918, -0.05737257418101251, -1.5709121485959106, -0.449543960691685, 0.13840175830136733, 0.3092339049962387, 0.8071092302764558, 1.1617344766479545, 0.17103692708839907, -6.277913407739273e-05, 1.690024925313271, 0.7573002247766623, 1.401051595769087, 
-0.5605474943382448, -1.3082957119792595, -0.03918450676718508, -0.8704789560335422, -0.8533625086112642, -0.16030814997825332, 1.0164473280630668, -0.6830774131623669, 0.3135031307266734, 1.3476013494116323, 0.7524865543241226, 1.4462858594138734, -0.1670759803928418, -0.2926332668999522, 0.3793600871233461, -0.5419761729191962, 0.09192467044101296, -0.46356567847781033, 1.8691916784602465, 
-1.0171903217811464, 1.0149951160230268, -1.7563917152158393, 0.9444982418801592, -0.6986493865266986, -1.4954685814769038, 1.5692548354795692, -0.8739966281292788, -1.4598726330352212, -0.5808095991177126, -0.25978734398991954, 0.5212076050729821, 0.817689400892359, 0.9386908217331226, -1.1778946578093323, -0.18284859530285924, -0.4407969197306807, 1.4101471525728653, -0.1977255789413151, 
0.3238946933357794, 0.15186872524874023, 0.3913318187436146, 1.5828907012546274, 0.1451419531179485, -1.7022136593305472, -0.5948426764990672, -0.6510757378836115, -0.4230313808926752, 0.7402909138411424, 1.9304101921816497, -0.012557486263837675, -0.9383348414436278, -2.547677324659908, -1.0220869589738781, 0.3927962985769409, 1.43928185776937, -0.09481158828941989, -0.7531138931313375, 
-0.5744185389740251, -0.9850185157853981, 0.7084881181571651, 0.3408660615496948, -0.2866792351496271, 0.24095616543134646, -0.7313565827396871, 1.7330780406999007, 0.15234206967832392, -1.9791030284366278, -0.05730857273640337, 1.2942679169697726, -0.31547122384022563, 0.1276040965506244, 0.3970941433565422, -0.5370484638111194, -0.0580004594663481, -0.2797505773854495, -0.22011333293547677, 
-0.1458187753759062, -0.28608731511152274, 0.5385479522279809, -0.5926279293115032, 0.026223617818247984, -2.0020809859353816, -0.9251858153664723, 1.5381248379635755, 0.5287884332413024, 1.9312839919855866, -0.754185511552308, -0.7747119892686392, -0.7999676497105236, 1.0691356588854097, 0.5172293353222661, -0.8209632711279876, 1.2565757743537918, 0.23734594142163892, 1.261355200292362, 
-0.46975507847725234, -1.1658976653687045, -1.7737250769317927, 0.8131138828569544, -0.3402926351060883, -1.7960258335021073, 1.4561577797843133, -0.9977837512927276, -0.5133195769161614, 0.5163691860667842, -0.4789983292673076, -1.9500441956395125, 0.19587759869737986, 1.8346940722207343, 0.10469907492770562, 0.9730816982427458, 1.1151268884406962, 0.45405176785365636, 0.9552522546412785, 
-0.019300535235672968, 0.8650063457054877, 0.6031419441321243, -0.3350784313138088, 0.6828325290162205, -1.4571449868581752, 0.10488859076664127, -0.14798174367103806, 0.8020824760867027, 0.7221586964676169, 0.5544065297442046, -0.5224642649282772, 0.05877770429052955, 1.4701220130192072, -0.8994490244927273, 1.7729245968440779, -0.00424230890697599, -0.6067154253375476, 0.5143345702425266, 
1.3572613488305192, -0.5587919303894596, 0.31059163983781446, -0.0844844109340639, 1.4403146521077972, 0.3391848459187931, 2.426510349274302, -1.1204240105013283, 0.2600827942849874, 1.3198801190453635, 0.968899031925775, -1.5358557830791202, -0.0864960499824227, 1.7208618261964286, 0.6061617738585171, -1.7192129030026255, 0.17901109287183636, 0.178568827357326, -0.39331366385163496, 
1.108108271919652, 0.38014798762596275, 0.7338380004489483, -0.38447265520859636, -0.7781176338015703, -0.796769060252483, -1.1348889725119153, -0.7496519604042422, 0.23912105794132543, -1.7324966651362006, -0.18075003912187035, 0.037032531449988845, 1.6913672517009988, 1.0804555411563885, 0.1195156401631217, -0.13961474014761194, 0.8613217746810565, 0.650690727969573, -0.3427383242326175, 
