-1.2281085423342062, 0.6102184475813497, 1.627293342304954, -0.16057446900902583, 2.0831223811590647, 
0.6431971607383147, 0.17814033718576563, 0.28380903426738774, -0.4115319829633537, 0.4856158154446027, 
0.41986166825978044, -1.3675111883058213, -0.7052442691546204, 0.13655343119194915, 0.2881330008089874, 
-0.47584134000675643, 1.7104191001747757, -0.2426812980367975, 1.646622771638263, -1.0281621786695403, 
-1.0116118239211103, -0.42079835420641554, -0.559731248552154, -0.6777560486303933, -0.856010815723402, 
-0.22572983952521197, -0.6488576061628983, -0.4685446358370765, -0.07379182883611443, 0.4169445944062115, 
-1.7730372464709916, 0.4636851310172009, -0.5906611545597977, 0.4321953281072056, 1.0376870480120497, 
-0.09519184857707205, -1.1195145845559855, 0.8045238116363743, -0.09090783125227733, -2.6417205591849213, 
0.32678311398899657, 2.0603832561132602, 0.6734425142270581, 0.5679454463689564, -0.27077732061585347, 
0.9081140275224763, -0.19176285748934022, 1.8765764597452619, -1.384347040400668, -0.22587327966686532, 
1.6132570940546413, 2.304522110805396, 0.26354186632377236, -0.038339591460551915, 2.0264081835175443, -1.1495187415901755, 0.24703078652847354, -0.30367328805056654, 2.4839973522964316, 0.08877430623655488, -1.0931250784368667, 
0.7092428758712573, 1.5135335931483682, -0.22590922796926857, -2.1006203706430258, 3.146166546310948, -1.3688803948535522, 0.9992840505830589, -0.35223236424405185, 0.33706650142136474, 0.9853253486576726, 0.10218460901048039, 
-0.6516559226775546, -1.020904379404374, 1.3737356557443172, -1.410976785669825, 1.7858141418290703, -2.6679565045745144, -0.32306421826355486, 1.11499949896361, 1.594999880894321, 1.5970278258505406, 0.5706120534792926, 
0.10282739899772407, -0.008440765506193623, -0.31712177835086325, 0.22788845973142177, 2.152211016734329, 0.7513345649120902, -1.3452958186104298, -1.1477761799538408, 0.7111647511632077, -0.2310525163653429, 0.3875259789023141, 
0.912683250526896, -0.5248629390472022, -1.1498994544643226, 1.9192378701355817, -0.9749943420483922, 1.5637317739599912, 0.6654491499075305, 2.010382423404359, 0.9404849104083637, 0.35299203445608546, -1.9785740824085833, 
2.249061237809824, 0.27890085361605843, 0.42471202623537146, -0.44800760068591267, -0.6001032500408244, 2.2134008929513302, 
-0.17295729766692752, 0.47692612788778604, 1.533031252684143, -0.08206947513360627, -0.1250143530253241, 0.45628868670646056, 
-0.050520654467172695, -0.008884559274778969, 0.12645284005333654, 0.08079309548100551, 0.1549250655435083, -0.18400090796730653, 
