-0.4143055285108243, -0.08556370796585216, -0.08126251294794987, 0.09875664479463425, -0.2641188120377129, -1.1481399069495901, 0.4481878664087809, -0.10193801621454684, 0.7962598996966429, -0.03116202593250791, -0.6246518164151972, -1.3149617469666661, 0.44863281062704496, -0.05874712696983021, -1.1963941354900565, -0.9385859335106989, 1.593396887272194, -1.1690809479765054, 1.021242115742478, -0.29926953306337384, -0.2652038821081312, 0.48192247089577334, -1.0907873994341892, -0.1631218099673264, 0.5895779250319012, 0.5635710290393614, -0.020930293346455752, 0.32442186947558177, -0.7890747399430798, 1.2354461262348586, -0.8996696211480432, 1.1798429647010358, -0.013074301683756053, -0.04552015346579531, -1.1827049965520178, 0.1098596361219379, -1.4199056307483515, -1.8145407826920015, -0.19935140018942196, 1.5451546282063187, -0.4827676338370855, 0.5039950777615851, 0.9751500067430225, -0.2671388601015283, 2.094123913715571, 0.3616212856491379, 0.031488299459686654, -0.8419342220211166, -0.24977056316274515, 0.1722039899401551, -0.4303191585636741, 0.7908729503287577, -1.822571809855748, 0.13241742958359762, 0.06492770186838995, 0.5863652576989403, 1.0606547985802635, 0.925556106353728, 1.4625800205897181, 1.276907518830195, -0.5685784544274857, 1.4330672217765867, 0.6034157756531574, 1.245304801806528, 0.5251160848384607, 1.5332702118001926, 1.6593510511141558, 0.08852369191506437, 1.7244617258328805, 1.1296904757026403, 0.51594343760919, 2.202102480426109, 0.49890785071008276, -0.44251109323076115, -1.4434083421505872, -0.11105080777223471, 0.10203473649363404, -1.1326634965839832, 1.8681639306927544, 2.1411495755029515, -0.7514822495672774, 0.17411812840059174, -0.6464658860761432, 0.5063363120312216, -1.0440500236847947, 0.24623805916285585, -0.740978738185225, 1.696474567736358, 0.7246274503867718, 1.517345760096277, -1.4705517174358913, 1.57117875470822, 0.7023114453054914, -0.416090285181854, -0.44262268692790374, -0.4681775560268876, 1.217378055694938, 0.3321160774780267, 0.56880763393213, -0.4068098198507018, -1.0041938702204987, 
0.9243868498021879, 0.3326755004093925, -0.4278067774273668, 0.8407163393833726, 1.7179060346164048, 0.7989418996297097, 0.2558166546160978, -0.2577001835456332, -0.5287826326062615, -0.9275209541943364, -0.49523170706669645, 0.44868511642702064, -1.3335909739675473, 0.34761037675049905, 0.2671904498858585, -0.46498314708756194, 0.3211208152746768, 1.6005933587121748, 0.7376384167850852, -0.645480321008929, -0.9514120225357249, -0.4387062123987783, -0.21404197820697712, 0.16379442180002882, -0.12839346235543758, -1.0011512903262205, -0.2940684456853585, -0.6941484841361436, -0.8184217752052296, -1.535808833185133, -0.134618833413736, 0.3000747406676292, -0.06110613606545843, 1.0241591716695115, -0.08951908590362508, 1.2020054540507317, 1.4749490653038024, 1.7743612903214039, -0.04559990713802743, -0.030667691409887447, 1.1224367435293698, 0.26249357534020695, -0.5106634032741489, -0.21466428514999372, 0.03317418437013634, 0.2575747869461923, 0.8759433421288636, -0.38347367742682603, -0.40722997630861724, 0.0011499277687706166, 1.122908345189328, -2.0777886955713942, 2.376645650192486, -0.9192012862567992, -2.025394132857102, 0.5079766207872325, -0.9257075873361306, -1.6319104537789526, 0.4812717119245752, -0.9895578468009153, -1.3240050080202999, 0.47286464840365927, 0.27042792612945954, -0.7728138650805191, -0.5553399010758194, 0.025701144153166953, -1.524518695447793, -1.091792685246363, 1.597323538058599, -0.4239832591714678, -2.17443698418301, 0.6290811239112022, -0.5403104453320192, -0.7491435439175551, 0.8665034707984566, -0.6293241919659313, 2.604908920910631, -0.4918210249470195, -2.490157714912439, 1.6416494874524787, 1.2391686016215449, -0.3076926829587083, 1.0062777820733697, -0.37451402352806296, 0.6760804386280427, 1.336286136376704, -0.5997739897859694, 1.1292922727871435, -0.8862536383703961, -0.5823150173230128, -0.30039100242396766, 0.9601335826383464, 0.6346061170951403, 0.9672663871551321, -0.1835519910868961, -0.5701711362415259, -0.2698362626357905, -0.9848788828437528, -0.18520238747477505, -1.5614031850413657, -1.4051582867864736, 
1.3178567982316551, 0.17981624933829113, 0.1674540363081259, -0.9489232529946583, 0.7116202147715541, -1.0854529693617503, 1.3627138530265395, 0.7128135827220459, 0.41443637987629056, 0.17651545858412784, -1.185974886151322, -0.21327684228946084, 0.42405836909932226, 0.4442569582284521, 1.9089726924592547, 1.1229743090299482, -1.540383186988203, -0.7130645520800147, -0.6808820283704704, 0.21217920398654413, 2.2014662349480947, 0.8600669605630066, 0.06301967409313287, -1.1144078956105303, -0.46625972316910475, -0.8679381964657351, 1.222946964277281, 0.098532505620716, -0.05292666530406388, -0.8310765213366161, 0.39687527990356486, 0.5911407329041132, -2.159280612825783, 0.9130938264282319, -0.03507612706346389, -0.5875585526235864, 0.6036250908862303, 0.8430134414236863, 0.9546350268350979, 1.7560836412247913, -1.10468545138166, 1.3326039609613742, 0.8681613735869843, -0.34791114058690153, 0.15499483596136315, 0.36200101827854325, -1.0498095486782686, -0.18981701067758236, -1.1996145599823944, -1.0905090556362749, 0.7597574155547576, -0.11842171282386636, 0.32048884742650485, -1.1765371105925528, 0.016572087412059604, -1.666039542146613, 0.569047302282534, 0.4065026753979462, -0.2807818070001792, -1.3494283424508686, 1.3113893287148748, -0.04088324471205043, 0.6719758274997503, 1.231807356071492, 1.6673768275551044, 0.7284828214589978, 0.9228364807764413, 0.3238323169303937, 1.1788440122196535, 1.2967370021202078, 0.9302363477600565, -0.08424994755123569, 1.4519622728799513, -0.4320664569704526, -0.3923365244858117, 0.2842379008873729, 1.2445628911767777, -0.6077565823737314, -0.07583737175894101, 0.7393045748052159, 2.6541996894021307, -0.11890343115752824, 0.6489621661747018, -0.8182775859147972, -2.363015401597518, -0.6887674420067035, 1.1842488324315918, -2.854857128910875, 0.015420118655572112, 1.2004226458968128, -0.6170203090300366, -0.003684827505492171, -0.16323347683602665, 2.199465338188953, -0.5516142153068637, 1.3667927769570332, 0.6913872195114648, -0.8806464270083446, -0.7668080849089688, 1.34142474616049, 0.1721918298719816, 
0.04356040158426056, 0.7821974686385906, -0.7765664651566164, 0.023135810439528105, -1.063443343984283, 0.04459045741837344, -0.6977319952630863, 0.07217544956990127, 0.8693410021293766, -0.6792919240808828, -0.2034892417824013, -0.09960731985636209, 0.3959791623144985, 1.0544972183322867, 1.0572665960245589, -1.1893163595153944, -0.9498619371829161, 0.49441457272644274, -0.38449980362713165, -0.1215409193136988, -0.9577178484420948, 0.16779423271568825, 0.20134642900591124, -0.812411630198987, 2.9158231876150835, 0.00025472803203868395, 1.4480867610248578, -0.9903036930071307, 1.3734269443047018, 0.2549184293149063, 1.1911934075741974, -0.8638136835277916, 0.9293191638052721, -1.7527970947032743, -0.022121381347320317, -1.2764904436103066, -1.3214648435350458, -0.1887739717789908, -0.3298622381869137, 0.7220790139358914, 1.4953958930422346, -0.8175616937321833, 0.8360904395884123, -0.062376065691315846, 1.1160553773380595, 0.7675921870492125, 0.9968759388358476, -1.2115200751158142, 1.1184872644046584, 0.030261578077928248, 1.7547683228070747, 0.5192751042681243, -0.18909400095900847, 0.15545283146516975, 0.37582288274305264, 0.21853261424624157, -0.4450795177023829, 0.5451483820805756, -0.40625297015129075, -0.3367859839394601, 0.08171055484231685, -1.4572808115651228, -0.3137180160853297, 1.1915007992353257, -0.30928291461629914, -2.7239199616507, 0.8397837855218083, 2.0777377730313, -0.2632477555281433, 0.13218128680547017, 0.4753481651604006, -0.8785300841900192, 1.260191016575178, 0.36141313804547515, -1.0509956144393624, 0.7009077028354527, 0.7338370116896779, -1.1369045387411159, -2.2539458265059933, 0.748360191181061, 0.5677436083899147, -0.17282124280087424, 0.33130033965930733, 0.730286018466992, 0.794657951120107, 0.3257080214793195, 0.7873227791733691, 0.2926937589582039, 1.0235628835004016, 0.24540167824403442, -1.1664509296545809, 0.20589977258413683, -1.5676475418294766, -0.363624469124098, 0.16508668152991274, -0.6632535403499595, 0.5393219224045729, 0.48301610379962123, -0.5062925207180621, 1.7110361899911652, -0.18308443266865085, 
-0.799791215407426, -1.7585576475139149, -0.2721232393524425, -0.07440286928583507, -1.0545518833437926, -1.5966342592726739, 0.18097899405832754, -0.43187079045176385, 0.7690272439344967, -0.8192447745188322, -1.6296448779387873, 0.6065627918818165, -0.8596650122740671, -1.8323721848666243, 1.2039638643950403, 2.1332457441467603, -1.3310896851649867, 0.26443895112362037, -0.24475432345970258, 0.29128917276724053, 0.3869245617699769, 1.0711557865927508, 0.3803205863093066, 1.2163183965102704, -0.5406226984993515, 0.7136589361184004, 0.5269170141163612, 0.4322651755428179, 1.3941437262745215, 1.1874166504912427, 0.23262310800846223, 0.7544446027706504, 1.2372425783132517, -1.4668324946231874, -0.8907214786426213, -1.449618964825924, -0.5472809236186762, 1.0520951417904743, 0.7871886878279564, -0.12163802246035983, 0.44924260409175715, 0.43642083828244, 1.1455858420506706, 0.753646863324908, 1.1383026211367824, 0.04793957192382467, 0.1657719054609567, -0.6715890815273191, -1.0017912784491252, 0.3047886498400574, 0.21811546020254072, -0.5884461403503297, -2.26547480449603, -0.3522508440085049, 0.028623070862945008, -1.6931290249077184, -0.9016020450054936, 0.7362851265385254, -1.6909238698141995, -0.7895768295296605, -0.4058751986409316, 1.5692222959990503, 0.21056329527317622, 1.5677083217202408, -0.18855111415950676, 1.2070961139174468, 0.19762311107166233, -0.14281163013274925, -0.018501876559920985, -0.9951621673526043, 0.21298212114328094, -1.1327689786407578, -1.0900791992889092, 0.3131826613944484, 2.2534984446287893, 1.199070588134948, 1.2507566874548872, 0.7717615484555175, -0.04665334232520153, 0.42703466472348156, -0.4971497710939452, 1.698607735060061, -1.8083779829854303, 0.9930574246930002, 0.6103168795028634, 0.9597842010833592, 1.061483175202343, -0.6352218342470821, 0.2272955587931038, 0.8901246362583822, -0.11126009506940732, -0.1464311470121649, 2.8688552598825936, -1.009607806551843, -0.9413959078572834, 0.6994460358830741, -0.38674850232410146, -0.8657963156327116, 1.987232063930463, 2.0086317152072115, 0.7896134155968948, 
1.420227148711457, -1.2028707735187183, 0.7093266143915564, 1.0554454519744039, 0.541483666842356, -0.7689455589938345, 0.13416726935395812, -1.2803255436230847, 1.9488551080359429, 0.10585644123771255, -0.1426527030629126, 0.12763390620553203, -0.7107684805189716, 0.892778241692918, 0.562484135416918, -0.7106701110402717, -1.6231794234366894, 1.4120288351149157, -0.2099959547233807, -1.2620732920257791, 1.2173643573667339, -0.8596888476704405, -0.31769355029350205, 1.034230926455379, 0.7172658783790807, 0.5398453797230914, -0.21470748435411882, -0.07156713170342967, 0.045099843529738046, 0.1112479532177588, 0.8919677808574339, -0.3022235958429155, 0.3600436423417987, 1.1838232515159786, -1.2526363678327792, 0.9994198724357601, 1.5952365577388725, 0.0330088418549707, 0.5117981105449964, 0.3391560982882805, 0.8552105264442232, -0.4500176271889145, 1.3235473561274738, 1.7787651432034661, 1.517270146487064, 0.13898184720510903, 1.310996815293506, -1.6047236214742977, 1.2497926431319466, 1.6209598941682555, 0.9087930957370314, 0.894886102056527, 1.6200825737440276, 1.8790746962987963, -0.8100010036998458, 1.1173305195436856, 0.10709811065904257, -0.8046262094714021, -0.22280330032314255, 0.46423025759083814, 0.5737027913184599, -0.08773962280704022, 0.42926901736564377, 0.48584155571940135, -1.0435330966947676, -1.2764318945579303, -0.19700930134979416, -0.4058789586131629, 0.8729710524203692, 0.30582796856925587, 0.536961111468754, 0.07161500457247634, 0.6366935361755217, -0.2506002573250416, -2.03266611401478, -1.8569330673478863, -1.711562220662322, 0.07905588213983972, 0.71677461607723, -0.3138127862739183, 0.8471458383991931, -1.1470954563329139, -1.6824592903727207, 1.5258920614183227, 1.3286049505200426, -0.516989902828449, -0.6243410773415247, -0.8914168926165875, -0.05064111936767157, 1.3199464602574869, 0.21466666407486024, 0.15102371691434957, -1.3146378866246007, -1.8043165388943585, 0.9626457276766585, 0.7602822528694272, -2.130194328545959, 0.5655031969380316, -1.2304377454665396, 0.6753880296996625, -0.6142703855370366, 
1.7873522963018638, -0.09907205554262973, -0.5456065274590565, 0.7610025093635852, 0.4679484201099011, -0.7951923394358373, -1.006949921190396, 1.3182145522262936, 0.375097436987376, -0.42783471713940024, -0.7411699317136262, 1.1166207097237342, -0.5353029043421865, -0.6560134126213162, -1.6951129109082363, 0.22773016029944068, -1.0655611123279587, -0.39919270284623876, 0.9985954884733023, -0.3722351290505984, -0.2664751036131278, 0.7273252324090329, 1.70794944216368, 0.7822854047318676, 0.3506287335123898, 1.5925477986367742, 0.8064460547194638, -0.7670355755019158, -1.1930668496599715, -0.6123744707072053, 0.588567662792256, 0.17561717402114638, 0.7750596002664046, 2.0681631804859255, 1.7212794707953156, -1.587481129900974, 1.3061423041914162, 0.9497752295181373, -1.0853446593510054, -0.7599925189293226, 0.3807371675702271, -1.0775531032864474, 0.7455318570787951, 1.4175946351714495, -1.5358630835641711, 0.8227249836995217, -0.45884979750209726, 0.8988242755165741, -0.42145367982036563, -0.8993562174756909, -0.772669872996861, 1.499730348957289, 0.9774534130228069, 0.5028144659730758, 1.2376535136310065, 0.06493381035450464, -0.6079647486690647, -0.6049614129054877, 0.5605856618115406, 1.861768832160544, 0.04512548231517901, -0.10381376996671703, -0.029987365725811815, -1.9659937006448636, 0.12398133929153503, 2.0632575501677386, -1.0819018072396196, 2.531748918791557, -0.8893366344042913, -0.19002131670265532, -0.3917743696911607, -0.003440881137589299, -0.09655117888301736, -0.3723898120512708, -0.6098228345694294, -0.23467898055460265, 0.4534211972088843, -0.3166937939135582, -1.361045511902971, -0.9119858992854252, 0.7277649429393942, 0.6566884381821386, -0.5313921856055754, 1.0946469803242, -0.6111940676182929, -0.1977250877700956, -0.7077993721941777, -0.7556892010482825, 1.8244651976547563, 0.05065997737289667, -0.45578814975595733, -1.7259993515216212, -0.6299882881639095, 0.9765114877294077, -0.5302337080708597, 0.4887171932223519, 0.12843974284314785, -1.868625824851672, 0.6466686057978581, -0.4465584863393289, -0.35394211009346116, 
1.728751516934423, 1.0600972224545213, 1.2477867123146087, -1.5889825591861158, -1.7181060843947131, 0.14318175246231346, 1.7211513103672593, 1.0457502338981397, -0.638701282292402, 0.2020029391265368, 0.4612520216551088, 0.3360895092455924, -2.481818570893838, 0.6710106611860124, 0.7883009677171149, 0.8638947179177001, -1.145853420415505, 1.1017418555398253, 0.5019518670765458, -0.08234054274185018, -0.8952209571414375, -0.10607687632343078, -0.162404079632493, -2.1977102895270666, 0.8604676094366966, 0.47323971183912406, 1.1701922025104692, -0.9860069150611753, -0.5382742882479791, 1.4253533550243538, -0.515251244163175, -0.09119969744456864, -0.4837224555491522, -0.531383733297305, -1.7695793824772317, 0.06571033604078264, 0.4475088985519669, -0.12233644617967665, 0.5097352399600392, -0.9723890869976821, -0.9956386575451169, -0.45505531896612017, -0.9731880302570562, 2.3536461193742784, 0.0165724227492264, 1.6807850146930832, -0.16925620007477774, -0.11895902941623807, -2.433739332720408, -0.1729630989945775, 1.2626528756377267, -0.26544444491374963, 0.021640370876476286, 2.4450946035986987, 0.5459963116506747, -1.1833128280294394, -0.12850337260294967, -1.052193158369505, -1.0000360396050725, 0.8655317858614204, 0.7934797339867716, 1.1633537176544109, -1.3215199879885215, 0.6357583371725055, 1.1352802404394842, -0.002566429708792812, 0.3877512092720622, 0.5374767708364878, 1.0407369748977398, -1.2932192897757537, -0.0685150105811415, 2.055364503557701, 0.16419911776333374, 1.2457301208700275, -2.06660432909383, 0.0363619208654392, 0.9923298458284362, 0.03608837978385409, -0.2735704285385844, 0.5279977152650885, -0.40525041310703813, -0.1763360997952692, 0.7584534950800607, -1.197018631125794, -0.09253778271282749, -2.001885508893276, -0.35285624497451423, -0.4181771939157492, 0.2086457290981018, 0.7756573191209839, 0.500078528541951, -1.31417044971517, 0.6133053444654668, -0.036777711937414616, -0.7712099310618348, -0.415604976521832, -0.4116024354306796, -0.4943143618392577, -0.2770666532028565, -0.24659055279322312, 2.286778172219631, 
-0.27431377797815204, -0.5373487046356124, 0.3304647564790038, 0.0742956366325458, 1.2658282281486732, -1.3310943433640752, -0.34960909550853947, -1.4456159525197059, 1.3046602646350938, -0.11558530975144983, -0.6001387357936617, -1.039296337655209, -0.9823822520545866, -0.5469202326241934, -1.1115550429407333, -0.6966039112559353, -0.16625763499831736, 2.0070451335472748, 0.4758891954560076, -0.8443796606022216, -0.5567432429401821, 1.3030173728988532, 0.7673893933599826, 0.424175756346918, 1.6313653609149945, 0.3413716780926799, -0.21218980444196509, -1.2381352528509375, 0.23624297986482495, 0.681525228354735, -0.6407857517964538, 0.03256414144677772, -0.3979978708399902, 1.6150503743848488, -0.6594210458566979, -1.4114784696005052, -0.7344710777784246, 0.7118129761914757, -0.11722887565015845, 0.6172058250126657, 0.6771186833277816, 0.5862529395992776, 0.1377206501603195, 1.6548876518851117, 0.15200990212735413, 0.7373865500309867, -0.8280025706093823, 0.9535913833663278, 0.5833160919562094, -1.6294723901471786, -0.7177741778052743, -1.6256014533682206, 0.7729661149935603, 0.22712086252560929, -1.9666917410673066, 0.6526717065006451, 0.3470615169303555, 2.1496476329463556, -0.014308335185671062, 0.07833982756345463, 0.49527502536117435, -1.1271661648600877, 0.4550919943904061, -0.01059626120239772, -0.4546926531995422, -0.8631136582821256, 1.286870083923698, -0.7467750037237725, -0.1203979858824396, -0.2219659452572365, 1.5081201846199865, -2.1769023129682474, -0.5501256114011408, -0.08569213479153448, -0.20967179001210567, -2.550327433827178, 0.41571061113733143, -0.08851209621952831, 1.6182915174685986, -0.47847452952079483, -3.32975058312557, -0.37152169740396573, -0.982697654238967, 1.5745185930435477, 0.7379127996671381, -0.136049535883169, -0.3735910558713402, 1.604603295457302, -0.3929616908798143, 0.4183941787489674, 0.4691572731441514, -1.438563969335524, 0.38333929722641996, 0.09337373232761423, 0.5161989324631017, -0.1825996206555392, 1.1772488976083155, 0.060568203002335036, 0.27458593091281025, -0.5168158145518459, -1.5140653967274476, 
0.8823330824226756, 0.24015480018364835, 0.7608325433186639, -2.185158411534324, -1.117543426147117, 1.0618672737802277, 1.500912889697836, 0.6419215096952576, 1.5911381018797992, -0.31804485250079045, -1.1661144074664682, 0.05078129742730883, 1.6198016357722176, 1.0554807509048185, 0.3034048710893801, 0.8742912891490986, 2.112815376016953, -2.5502247750159714, -0.9777957575392465, -0.5685049403903508, -0.5700842622196379, 0.24708095503043018, 0.9921118119419746, -0.6337572951445166, 0.7714212970919861, -0.38011599946857366, -0.2840242436674972, -1.4198809260195155, -0.7325143847268846, 0.32301461105222634, 0.009431349116435546, 0.4557472395284419, 0.07837427813102073, 0.22153484555980063, -0.3585779890829708, 0.835849774782014, -0.8529409057228636, -1.100631917040813, -2.2155191598029584, 1.7024575930943886, 1.1479808776530445, -1.1686080447129843, 1.521647596101384, 1.3976041221763011, -1.9214707955667094, -0.7527693983081432, -0.3527656066501918, -1.0299475684277553, 0.00806437274123036, -1.3396882337279445, 0.7258558724193219, 0.7044231367156216, 1.1016051749552487, -0.04632747028771886, -0.12808877828094486, -0.9648269942331026, 0.40429012264046027, -0.5904817446266737, -1.6371758374232783, 0.1780372819562878, 0.4552379547631759, 0.3325115989243035, 1.279546573482869, 1.8450509017264343, -0.16373587007012722, 1.1649252871344704, 1.8922402184644116, -1.4280865971819552, 1.9336108734896145, -1.5659507197008233, 0.8273903191850506, -0.8333349210290177, -1.0657318044818818, -0.1937611688436209, 1.730739951259675, 1.1270826178017874, -0.01769753032280805, -0.7871500132888701, 1.510029282902427, -0.7108583895026589, -0.6717717293479144, -1.6543152949867974, 1.285239563637471, 0.6699121354277499, 1.0690584871869044, 0.07581417547680455, 0.6126207713494273, -0.9872352711995552, -1.5700521373001228, -0.05419646452539565, 0.6427431201046208, 0.8348322658861048, -0.5935805694126032, -1.3048790945749553, -0.15327917627684806, -0.026480119819740803, -2.3621857652123124, 0.6692244695572581, 0.8034945627259923, 2.0791423896602983, -1.9963634014334055, 
-0.5861971017350506, -0.13903353636157156, 1.0235068444574538, 0.5142097969508688, 2.1978039217270693, 1.4221345344605263, -2.667856314543392, 0.19090724289606342, 1.004433638076474, 0.15062840958589105, -1.614576417993833, 
1.3510966988513107, 0.45826744558599974, 0.8426006800529227, 1.3844782005427538, -0.7553031485385641, 0.41811190830050654, -2.555006359017323, -1.3919903521398753, 0.8251105980044717, -0.3956937478561584, 0.32176510016271287, 
0.7768584218027833, 1.8964285559947123, -1.1267961837613312, -0.7918460260446605, 0.5781380976248254, -0.6851904863453021, 0.1496250975357396, -0.11815706687845967, -1.4054275521172244, -0.664220376362147, -0.017513791804971934, 
-0.11170401168131922, -0.06927391855416065, -0.5849223005984271, -2.580958685714462, 0.46855236187328814, 0.6462074753694359, 0.13932836560182768, -0.41205007476413164, 0.35305353966135505, 0.45593951687404544, 0.12469890341074683, 
-1.8899527007568364, 0.5718069202416378, 0.08405247720348162, 0.049163249678061696, 0.8289895737607783, -1.0959581022990088, 0.5268562275559467, 1.5558808184714559, 1.8671938973778137, -1.5224382536272492, -0.8208530005995818, 
-1.1494880852942213, -0.46543657779969666, -1.362832301250553, -0.18201183905944304, 0.39086249598328704, -0.35478990183570797, 
-1.452345615882515, -1.1502115462854932, 0.543605347080093, 2.2916494365451463, -0.03189383220222917, -1.607890922321966, 
-1.0280163034639216, 0.4437002031869567, 0.2383026334392491, -0.6297390997526005, -1.1538944253868721, -2.8239492823274053, 
