-0.44322326638742643, -1.0573719878744667, 0.45135303516392195, -0.16306021162032355, 4.739999286324344, -1.6578982684209869
0.680099661271453, 5.127196246145336, -0.47462690913797967, -0.36242495267682334, -0.9872697289186865, -1.637335612953791
-0.8730845429684904, -2.8676295696075744, -0.278022717359814, -2.3822592626093915, 1.255571927047558, 3.100163532867718
0.007598766823297854, -0.6305136404412375, 5.669211911484916, 0.6616291079318234, 0.22174182861973074, -2.4305020230420267
-1.6382580734070329, 0.657616977515741, -2.771360196266359, -0.714146315103646, 0.6404355367095437, 0.4652836025006437
-2.333260221805284, 0.7837341303693307, 1.2294156085594867, -3.7447513631469276, -3.4794793151464383, 0.9092282681592234
-3.461165484567618, -1.5702184866165791, 1.6629711446745896, -2.2316609876072113, -4.583407293079345, 1.7906130057777787
0.17641218527109562, -2.4108040655389424, 0.09694260053082825, -4.729869186436064, 1.2553535786661683, 1.1849286885629744
1.2265602587005775, -0.7122257394438714, 4.121114269204968, 1.3591157236686715, 0.012607803246027739, -1.9698292236175228
-1.3877529759522333, 1.559947696229257, 0.42775850396274956, 0.8755075085801279, 2.778138322495382, -1.5358986912380241
1.1605743927704162, -2.5870147544969515, -1.081067653625002, 3.0366328940545535, -3.399174151854911, 2.3162343662884
-2.023156289692374, -1.7956572709840002, -2.5444428994757065, -1.3207849148955009, 1.118487289826864, 1.5899999381940106
0.17201249565835, 0.2655918078426486, -0.7682628395051959, -2.575759668750442, 0.017001111175798545, 0.7804456436224316
-2.8107598549995316, -0.05924940184480086, -2.072343474303942, 2.8633347189684746, 0.08808626568027896, 1.0389660211890375
-2.794486486547004, -0.21776696054856315, -3.66173002045588, 2.399351615823124, -1.3565022899693324, 1.0034916878137023
0.6682488713047628, 3.3785250460138307, 1.1558066174652932, -1.058099626254606, -2.265198058309022, 0.2971547121569224
1.3468260111632908, -0.5370685455153712, -2.6924067543647605, -0.9089860452178461, 4.1617693029698, -0.7680016432237661
2.05246276325689, 5.08250901948618, -1.576473796114522, -1.1568809156298132, 0.21857285432547516, -0.32371092141933444
2.7491305535758843, -1.0579388784293082, -0.11840633980531698, -1.2911914312103772, -0.9898030130412606, -1.2962014256864258
1.7455860722917405, -0.3402419966807799, 1.2263334898553708, -4.2752601065227, 0.2761134883818954, 1.0385127751627987
2.891432890505809, -1.8514489932025007, 1.0377503367928869, 1.2770512203464417, -1.863078003878034, -1.3112647184303128, -3.0380333576337484, 1.7500198275093548, 0.02343701410225286, -1.3966210945894495, -0.19005986244409667, 1.4970248506065134, 0.6293730255754156, 0.8971056366878087, -2.5189853625568093, -1.2373405074451045, 1.0728549882725964, -0.2162824308195808, -0.12870164970434267, 2.820617898014931, 0.7612655032553312
-0.25833886597921696, -3.3647103764805313, 0.4383151505657681, -3.196376767371924, -0.4932139743268487, -1.0244982118395054, 0.8858038608505483, 3.232871405176339, -2.727367254674972, -2.153417281709002, 0.4236871027859907, 1.127174529345048, 0.9876292102359353, -0.8842662414547268, -0.8438330411172423, -0.8826288134054987, 0.6232448348182559, -1.3844746177497793, 0.6991955255468345, 1.6084325214577557, 1.1966366300882396
-0.09174869984207287, 1.2915478226564037, 0.9349443968723568, 0.7434674969547287, 0.3468964718132206, -0.29083588969386887, -0.09964185135445215, 0.2271440221819234, -0.26227883494262655, 1.7970088504470954, 0.42299517966951505, -0.15474291043341099, -0.21356417452362889, 1.246814683728093, 0.12390601742083218, -0.2259734121868969, -0.1708969040355824, -0.29514176014882354, -0.6590547485099402, 1.6626488728435453, 1.64572231986037
-1.8644089542595927, 2.188462537304817, -1.4835431849400675, 2.9479877286276888, -1.9020860339251329, 0.6500600769371874, -0.15579508169985215, 0.45986651728165917, 2.1524057260650213, 0.1178512227712855, -1.090999011268045, -3.018203883149366, 0.767729288757421, -1.582064993059296, -2.0486301722665137, 2.4375995054416375, -3.1552447980424634, 1.5466488560238099, 0.7153279998396853, 1.8258642920439818, 1.6423525568100095
-1.5226573346930667, -0.7231532995434446, 1.3138135087099618, -1.3356606359117726, 0.0789805339013083, -0.043891871358399615, -1.4246133179857385, 0.8877394768730437, -2.1020536413574327, 0.4798532777278224, 0.298064870631056, 0.5853875883050901, 0.6860401055248768, 0.4992633454552915, 1.8238596630951522, -0.16223242052246745, 1.4702046195738487, 1.7460130959930509, 0.8800549925956707, 0.7378206288006945, 0.27904154183500496
-2.188104647723668, 1.697819678269746, -1.5641542658605379, -2.792423646995432, 0.3173173757214445, 2.4433926021988106, 1.0826023034659138, 2.34797779539472, -2.5136506236261127, -0.447377476157714, 0.408062593888606, -0.949064034124965, 1.9145089638589898, -1.457003726437917, 0.25494600864843514, 2.0331236489117943, 0.30292479653577986, 4.487627914098902, 1.0394252943707882, 1.809104905798886, -0.2802750304030121
-0.14605445372931705, -0.8841031169711732, 0.7235126666197221, -2.1949423732472297, -0.47813994492793577, 1.2140216034254037, 2.414031332177186, -0.9293830551242831, 0.1826407667168254, -1.3460647865445707, 3.757905032108956, 2.1878291100118603, 0.3666746007873493, 2.329189517480755, 1.9266212489329106, -0.3368384665549486, -2.5142609651208194, -2.2219538736078004, -2.21177232249342, -0.9270008343763942, -0.8430701016798832
-1.623288085547672, -1.7813810459910107, 0.8350912551580978, 2.3703430106524195, 0.19465551689892432, 0.7491194726721837, 2.8045506525275052, 0.9273930675054676, 2.5277567973945896, 0.7071195925779127, 1.0699552213398555, 0.4090188912440643, -0.02683847331133523, -1.6771261040277026, -0.438531526415119, -0.20103988213178586, -0.7990034467538418, -1.587948945503669, -1.4261528687197038, -0.0649642464100705, -1.310670123074914
-3.218977220730383, -1.9613845539150083, 0.6197496205751396, 1.2730010128907567, -1.0698729358066947, 3.4112344181203245, 2.9393869765279144, -1.8830628107719198, -0.11693316476236057, 0.2454190631353248, 0.8795311759485399, -1.019828300366446, 1.1034202198157248, 0.3740814220199773, -0.5389939965598189, 0.047699794984864395, -3.0178218324294668, -2.192670593635574, -0.7676462777667595, 0.4269125973329097, 2.0307680864583326
1.1505037072537017, 2.9974998404741067, -1.3279312573135778, 3.132692664079799, -0.7700246659159263, -1.306123785703069, -1.385545147220847, 2.378517834508581, 1.4398977620845257, 2.2328977942038732, -4.327813941186893, 0.5252178860696946, -0.6194866637571316, 0.9054756283379484, -3.6437427899028774, 0.38206824844105175, 1.01511927109303, -0.31098506315863383, -0.03999293267547946, -0.4193971046264509, -1.0884937431536836
-0.8233550947338734, -0.5435985725400676, -0.8128879911703379, 0.4876226577748737, -1.1337414481285428, -2.5734696700532504, 1.4681738271162421, -2.3391411463131138, 0.347636317729873, 1.733908999005022, 2.7104288502849787, -1.228851898345227, -1.3846038089124737, 0.9467483880923808, 1.7449116284888029, -0.05668941105841961, -4.848726973726595, -1.5942367818652217, -0.11555017335233156, -1.5516321445747798, 0.3190279816029358
0.8830386766875132, 0.8795998902624222, -0.12283687181602718, -1.0084464113004028, 1.4107720924243052, 1.9623445697627748, 1.727447242667187, 1.7528994003301874, -2.14650765505668, -0.02323822589879097, -4.0094924221678045, 1.4594665613139726, 0.04981294194458558, 2.0433588953626174, 1.447899650013376, 0.32915818666881114, 0.30190418828540055, -1.4694766120719043, -2.01478045167744, 0.6532800737194632, -0.06398677798458867
1.5439722629476837, 2.328445730641561, -2.763074424888072, 3.509377711475124, -2.318519493140229, -1.011863767411498, -0.7953298253753892, -4.095532460635462, 2.6434012088111913, 1.4244606551903993, 0.09573293120132607, -1.3296240275056666, -2.15174949405564, 0.4455920730073655, 0.21384284555259636, 0.40130090676921626, -0.41351956155194486, 2.689308759506353, -0.7185767166635795, -2.4123358189826622, -0.8905262845732108
0.49660121000492113, -0.5324694593656278, 2.0162218352189507, 0.6916796740136976, 0.13925219953680057, 1.8095846341782742, 2.849048338870655, -0.15045712616671528, -0.4712173385154561, -2.52567223582604, -0.8130040800903084, -0.10581658797625927, 1.2724562560871036, -2.09302945169946, -1.6363892160022817, 2.115818755012712, -0.8655754906057584, -2.3913244058835676, 0.8944299820714686, 2.113478943847561, 0.8099845750964404
-1.7866767718054581, -2.6841926754375534, 0.19148210738063243, 1.544482268554787, -0.9582743124312736, 3.033217997715374, 3.817439418274433, 0.9079322487730309, 1.0776697088045424, -0.45841697796565894, 1.1843954416857563, -1.3638626160621674, -1.4230680456889977, 1.6845306230483854, -1.0177123911329835, -1.4785546045419649, -1.3956272315868112, -0.5824072009290594, 1.3635126692447745, 0.15339703775667718, -1.522418983602799
-3.258850813754003, 0.9009993295724724, 0.38041377216949923, -1.8446075571583076, 0.20071968495228165, 2.110202060382966, 0.41205727901708245, -0.4982181401941568, -2.6376047752280383, -1.545267496666051, -0.4848034945757416, 0.5130516239888684, 1.4957286664487228, 0.8196631696046589, 1.4046492741653287, 1.0984630829722146, 0.09942788516895688, 2.3332200195809496, -0.7226626131993651, -0.7718517589960752, -0.23021511813542855
-2.5073165537451723, 3.4186975862471956, -3.6172166023261503, -1.9352676133124136, 0.7632578455061033, -0.4356954807173556, 0.753926729495433, -2.0960428645783304, -0.6701552919662745, -2.722567505290802, 0.6971068937582441, 0.7278570622611747, 0.24484356582109723, 2.054656320397736, 2.0640507025443773, 3.593008062747493, -0.8513500648914528, 1.2867138572039147, 0.8789979418355675, -2.7152669268596865, 2.828245098060185
1.655072516797298, -1.6971626094502708, -0.3109905682797817, -0.38561093826810966, 0.17849662075496614, -1.463618434272302, -2.060640310228567, -1.9649062306326783, -0.9577902924281467, 0.25651023454423205, 0.6435301370328013, 1.177924758026602, -0.47326642923503526, 1.2552371540930831, 2.8895767241866825, -3.5035188745740964, 2.0472253299631493, -1.6948706666655242, -0.4430678994373498, -1.7531068348194485, 0.024081679466676
-1.744427599841095, 3.6010270466748455, -4.065441398301463, -5.161815595320453, -0.2365535763124361, 0.16763276466188576, 0.7517679617639607, 0.6582527265528649, 1.1466498024853702, -3.488960472970991, -2.6986370702181737, -0.1383164245160928, -3.043650201962133, 0.7214912571281789, 3.806951316613622, 1.7118544779744103, 1.5115116238347317, -3.2502258332697886, -2.673921097837075
-1.2190434049801446, 6.304793067787354, -1.6835023386308658, -2.5354304596039796, -0.19564726117995945, 2.0628506550914945, -1.830734866568611, -0.3720102667246852, -2.8679672765900763, 1.1869382261534753, -1.784109530094183, 1.7310041471112527, -4.467693730595179, -3.0018564400661862, -1.5453729396786227, -0.2588346625651219, -4.7350474713395245, 1.2998037051303557, -1.6202425584038251
-3.405585143041205, 0.3698869963472466, -1.6958017181512997, -4.836820480325701, -0.6038532882427122, -2.554284624207518, -1.354636904714319, -0.3282621326162154, 2.9591074596904514, -2.492191639622861, 4.884431059078891, -1.4264254870427513, -1.9274307705832667, -2.3544065814533726, -0.7440637704435462, 2.740314721869008, 0.9565403789960001, 3.225719393653874, -1.8669803174148698
0.4262585107227662, -1.6259793320788134, 0.05593316883980479, -3.1970221358244104, -0.7244653911165748, -4.985934164816953, 2.88381485780521, -2.2493645744772266, -3.719312904689085, -3.0164786791956586, -1.2713669668306862, 1.3098014016298265, -0.2612041726257884, -2.2155323665074693, -3.1652312518731405, -1.8254165619562845, -1.971486155441883, 5.318851027629369, -1.887713381437427
-1.3790428417602687, -1.7601574592872904, -1.791317915875151, 1.6654724998313921, -3.4583258117275704, 3.1178839355555947, 1.0580088417858333, 0.972677698272348, 2.684078553580031, -1.8867826170803133, -2.5134820933965702, -0.8022240522164507, -4.595211639367532, 0.339062996135134, 3.5633481348413025, -2.2054706311078602, -4.993210914135219, 0.03155147994893773, -1.9107889617581588
0.7745808065649183, -1.104993265136666, -1.8725137957195213, 2.7927919698280954, -1.5821311696127798, -4.211956959192503, -3.2189859000946206, 2.7015111307768067, -2.336137393725772, 2.123926199990352, -2.133163953884521, 1.6387452824036608, -6.359250075177433, 1.1816222933307037, -0.7362299121951649, -0.468977485958003, -4.406353239992326, -1.3654879735294532, -1.095547932510042
-4.148973550808051, -1.7985947579682366, -1.3564674373696213, 1.503812706090978, -4.354380904210159, -4.050984435730557, 1.592690126206068, 0.9255629384520501, 1.1046855269223808, -3.7334948396461516, 2.2914278512713886, -1.2719011407206666, 1.2148709438241523, 1.930628988920533, 2.121699787523932, -2.747190923937208, 0.06283009989209004, -0.902413717354263, -2.8889060467560994
1.5697721036847936, -1.5857052147024333, -2.5777680339810196, -1.0770860446786086, -2.4473823347750594, -4.474932971030355, -0.2732493655893196, 1.8863669251681259, -1.9258352640265426, 1.6448344399875534, 1.7140109814210143, -4.413731017556421, 3.1163926063217833, -1.4764883435940401, 1.1511049733328553, -1.1910561771514525, -6.459151911306959, 2.15440039098344, -1.1280463240802894
-4.423824497090257, -2.8789968915596953, -2.096117430352517, 2.3935247887175364, -1.7992210894508074, 0.17052643441958348, 1.1674486212268165, -2.0788746861797933, 2.515239321593343, -3.9963756606621548, -2.775009911888318, 1.3922473741496892, -5.159170381400088, 1.4384858859737644, -2.807677267643332, 1.767307479246093, 0.39575486781189845, -0.8094378999297601, -1.5506819227612398
2.799352242101336, -3.295381342478138, -1.5034359744008856, -3.8151712988854856, -0.9411888781956298, -0.5823125211663153, -2.387613898224281, -2.6025864499301385, -3.015789830438621, 1.5090040948891645, -2.628622542866879, 2.4699709525094256, -5.608913876145191, -1.087073755176223, -0.1648085175801016, 1.6032004622819047, 3.286532900442208, -4.718632321456347, -1.843574855439364
-3.497481635330497, -1.838390503498126, -1.5001727616399465, 0.7806813792119972, -0.6701354008510279, 2.3210832010854694, 1.2290342759871575, -1.830091761916183, -1.6070678700104635, -6.941777988723072, 4.073497520042544, -0.08837800390021397, 2.7432839212428655, -2.9339149186993714, -2.765026854206293, 1.7027152740591518, -2.926880160539506, -2.4659909083791827, -1.52183534687821
-2.777562735816583, -2.9477967175763804, -3.0504914101873752, -4.200429808652879, -0.08255928956093954, 2.255537637551118, -2.9290815121668534, 0.9661898188090197, -3.732905104612706, -1.372035317513258, -3.297009612971747, 1.8715994460693257, 3.7504394788512063, -4.214490737888174, -0.36288225653705114, 0.11298714034925451, 2.9502306813299755, 3.1404277976845525, -2.9999009339813627
-5.3227424708506526, -1.8289109043655423, -3.323539228695931, 0.9388174429133582, -1.8170845139063216, -0.049839078793890663, -5.131937113723705, 1.9589514684991378, 2.83668876938713, 0.24219566855978544, -5.073019202776618, 0.6714580184026955, 1.235197190779099, 1.492164005531444, 2.455180013193486, 1.4748430329488083, 0.11544523937860142, -0.43286169608794955, -3.1278984380228008
-0.9314599494844367, -2.6727154265335344, -2.5400550971486457, 0.31492140660114104, -1.3981112594491818, 5.396346867506718, -3.1211931399608073, -0.1018908956562191, -4.385841246419933, 0.33072386915405105, -3.1246902848944633, -1.4560399560048678, 3.9132495932726648, 2.5610015217559567, -1.409978983828921, -1.7717530297489283, -5.780894845177476, -1.752328907818815, -1.409578989224729
-4.613602790227456, -1.277446540979808, -2.528270377985632, 1.7027007039292532, -1.2211089655149834, 3.440451755039621, -1.760817790407391, 1.281365166386385, 3.109280886982671, 2.6979963061778616, 2.2245782759501043, -5.389132622086621, 0.14927249948959484, -4.940423037570798, 0.6181703825205457, 0.18950037211010315, -0.3128680025973686, -0.8043593106548542, -4.395737818882761
1.916489983470762, -2.5899847254140416, -2.4273680020678916, 3.908034129113033, -4.77320353092314, -2.0156386646271813, -4.189376057767518, -1.7479875823924658, -3.8653499089296193, 1.5556284011782293, -1.232208426841213, -2.1595348784879373, 2.368970032791579, -4.31757179048363, -0.6919099828307537, 0.6824188000618426, 2.6942365062375653, -1.2076952585174772, -1.289534313862407
1.0153730602701452, 2.0403726531643254, -1.8081604207734643, 1.1816625526540445, 0.10648521134664468, 1.3750136498002554, -3.7377549671672763, -1.2759349114712186, -1.778283092489692, -2.8274436131002623, -0.7285549746767633, -6.785456934043207, -2.4547894472179275, 1.4781456493612308, -0.3576347876696632, 2.433372460925269, 0.4593055422700758, -1.7781170558827462, -0.5907761661756202
