1.5170492295847853, -1.0417388556693892, 2.758413774488495, 2.9865539344725383, -0.21612806927697562, -0.4430172549198155
2.4503236488042397, 0.20075812080002667, -1.8867491242499783, 1.5640411861231251, 4.156217124714435, -1.3519307401338139
-2.3476110816072593, -3.1409940163914616, -1.5515583159073925, 2.425012416638544, -2.341023573229648, 1.0710913301837863
-0.907639316761531, 3.1008654736342915, -1.1381945709518049, 1.3281610642633073, -2.1750001006052893, -0.16530896865034914
-1.7027786120075725, -0.01602127762457116, 0.5618197092680204, 0.004933834376332281, -4.812177637429442, 1.6486394322136932
-1.846748414627697, 1.2048530638386035, -3.785224529986191, 1.0100950409009823, 0.41045130050363665, 0.40669739356933454
-0.7134681235771742, 1.717808971405507, 1.3619916696296386, 2.8732333535886996, -3.1289519593803767, 0.2147857239898458
-0.9639168274555548, -0.7064019199659805, -4.067315529010422, 2.683162376923851, 2.106700820856075, -1.1861062719830944
1.3415656250115264, -5.258747580666941, -0.02687361119984167, 0.04909417708772411, -0.18078241198805392, 2.5952244929816044
1.5099010105783002, 2.5230651366431496, -2.526551086150168, -4.4374290048947, 1.2753741407876544, 2.4074317911521113
-2.2451373153688734, -0.22706460731194594, -1.5744768480163243, -4.640214009437712, 0.6868128566408956, 1.5496522073094445
0.9260282248389379, 1.0202792237271918, 0.5597030142315224, 0.8822167126786238, 3.063410109395632, 2.6766426855820815
0.9980883121126951, -0.488700849982599, 0.5287352603692101, -2.3305503381336985, 0.4306457541794884, -0.2238016402111116
0.6335313210434668, -0.6481820968541014, -0.0877613387337084, -0.3784158752080004, -0.3231070360921299, -1.9967517033957343
-0.48438532149850927, 0.5323378747702067, 2.367120858206261, -1.9661206367827413, 3.678965614236964, -1.6604437203048945
1.468010649084286, -0.7004571255153187, 1.9982848128944535, -2.193180346480114, -0.4489890403611016, -0.3714097448608273
2.2076682094532027, -2.1281636880212065, -2.8717961641026486, 2.8784490215186125, -0.41492894272667113, 0.16010101834252133
-2.568335677986427, 3.3842188443838017, -3.2055178203651855, 0.7804073343050009, 1.50840212820701, -0.9715581537685043
-1.3198662494406495, 1.8061321063432227, 3.535072069902911, -0.4873359267677523, -1.1149489552424674, -0.9161070136143835
0.7259969957309512, 1.5534883447142607, -2.2772620888419146, 2.0185555090699263, 0.4711588057694213, -1.1142007489268295
2.225967622388044, -1.2530990920106513, 2.4153160464660797, -0.33023469642436953, -0.5521258252811742, -0.8668197212487724, -0.5575461248686793, 0.8050775776388462, 2.7640449419638493, -1.9508891321004713, -2.5512757543457862, -0.22856048898612336, -0.35449529425308596, 0.18365309113781692, 0.5229272696944166, 1.620654927441928, -0.10043419846608323, -2.4951187959004666, 0.13756850780931182, 0.15631375811309392, 0.9756387817394976
-0.6026670548539576, 1.2614120126664718, 2.308452311760578, -0.15447834919903802, -0.1925862992076085, 1.2492100338652243, -0.12014123667867585, 3.903851904871598, 0.592279692595458, -2.996383464262592, -1.1731792353594421, -1.2720686592563084, -0.9929755596542661, -0.19095253184146568, 0.2730219070992325, -1.650770787794098, 0.27673147447039, 1.476298200125945, 0.2034971428738002, 0.9270124293848456, 1.021737988952261
-1.8696315995836745, 0.5538641218230251, -1.1460433402089854, 2.0255377407329065, -0.07787398352933558, -0.3986395519994253, 0.10304997477993318, -3.034948100851843, -3.248211898996674, -0.33919037513927736, 1.5988772713900385, 0.7172293738894752, -2.356469061397108, 0.7958535342552033, -0.8451464735722707, -0.4522654475675841, -0.9883127443766156, 1.301884797596662, 1.098852774165187, -0.5097950276746496, 1.3243298403103685
-0.4610134627919429, -3.3586612249358465, 3.2364372281857308, 2.5303542033967297, 2.7669375578217035, 1.0571025391197444, 1.0183432877976837, -0.1204665539747035, -1.627136533273161, -1.8901417821120863, -1.3425789172472855, 0.41147071416940006, -0.2501262043197575, -0.24599166043608978, -3.5696202455234527, -1.351189228531831, 0.057037755868817215, 0.8433720001680195, -0.3296542658705193, -0.04912211488451485, -0.8065691186315153
0.06964198468304067, -0.4325787445554881, -1.2561301715365265, -0.1829360508652663, -0.010930247259469807, 2.319394571386725, 2.2486263358065015, -0.07999434597466765, -0.21602650827785358, 1.2830724094776627, 0.7336374056054253, 1.4090067259067935, 0.4577673387699954, 0.5077353449465342, 1.5079732396226282, 0.4090193036202589, 0.4326090925396876, 1.3796992212011623, 1.3976294712349033, 1.427715405996494, -0.5607470906016495
1.0107480072790789, -1.0736761265250272, -0.9998058654426693, 0.6189986224182656, 1.4646815209001938, 0.08459315756839389, 3.580855877169541, -2.117741381743724, -1.5728351682906563, -2.721448904670824, -2.427898158311465, -0.3472540924035686, -0.9764452192208287, -0.966257706464397, -0.22230849931565017, -0.9507364170210988, -2.2999842954728664, 0.9396189545165473, 4.112228226774048, -1.1220183763569762, 0.9981853703557924
1.706439709014999, 0.596718941512286, -1.8383325744514247, -2.868134582071557, -2.0462385111054164, -1.3990327044311965, -0.0012739466022828334, -0.6583748127351363, 0.9413479427460701, 2.166737790884775, -0.9678799296893823, 1.1496252856376472, 1.1629770337153689, 0.11705307701390363, 0.5945571227261757, -0.5110623986646348, -0.11610783472997338, -0.32008435047982803, -1.3548652227300848, -0.766356749839277, -0.9836346515670726
0.39848033547410155, 2.6654184731753685, -1.7461478611181567, -0.758757232485523, -2.7510810844475433, 1.1445480149092926, -1.0472295589745093, 2.71673720825588, -3.202007982979538, 2.370426530237403, -1.0428067543594028, -1.1924976539662875, -0.14154625782854227, -0.36848884684857075, 0.5449596926835708, -0.8358686662727887, 0.19727909966859175, 2.1225302623896454, -0.40792667120346005, 1.742471769355671, -0.6486885490317035
0.5808031060954835, 1.5319448530606357, -0.7577367323193319, 0.9682805420364768, -0.4822335631623003, 0.558982932223756, 1.2461583983582498, -0.17472029209441703, 0.07922595325922441, -1.1754165837158033, 0.6765759184108939, 1.2653002902396815, 2.3144733696239537, 1.6258840918469197, 1.2093155079603597, 0.451254625405127, 0.2349372412884125, -0.2888854294037824, -1.2117942783182587, 0.8678403688155012, 1.0733909763803313
1.1012650084517002, 0.3051886430559364, 0.46213810106877595, -1.1930507663530037, 0.4802906296004772, -5.2897443214889055, -0.8040070527126995, -1.1976281173472014, 0.4589544582805905, 0.021629081017588002, -1.3177047966545037, 0.28947908618948487, 2.3075534336104933, 0.4738375586443012, 2.492348182575632, 2.3777181718803417, 1.11467050526877, -2.3955259530912447, 1.1025156455686695, -1.7987549876431814, -0.6167877719610729
-0.6349302888815135, -2.1199552860310025, 1.1715830039284474, -0.8894833402161426, 3.7667697271884233, -1.7712367021857833, 2.2130439413446146, -0.1895122063270833, 1.754499779872668, 0.8000485952692042, -0.14808605867141453, -0.687687986064374, 0.5682528629399005, 0.5541480439374269, -4.020069206792492, -0.22835333765978166, 1.2687317636714615, 0.6529492650196905, -0.9023466000478981, 0.8209325141999724, 0.14065975566527353
-1.6803327110881774, -2.5285769932404527, -1.8453762157315798, 0.24712264711700505, 0.49115956809418204, -1.1808259558203527, -1.3430670266562574, -2.2141112949500474, -1.6952512547286684, 2.17952986289115, 4.343620012992483, 1.1217521667969685, 0.7206320289889837, -0.053441103409872855, 3.1900961838828508, 0.451750684121649, -4.269318196917206, 1.1278959647418987, 2.1472784155629565, 0.023731330141974843, 0.4785326875280038
-2.3412089945121113, 0.2879931412465971, 1.063635495769287, -0.5863480748098499, -2.243999679967111, 0.1154546421098667, -2.3332594193067893, 0.40731151060674375, 0.2559952031714853, 1.4163711588629295, 3.301294973961705, -0.4318193250407349, -0.10953024721405678, 0.12326414078929566, 2.949735019246656, -0.6266028116234734, 0.08587419952682955, -0.12769147780303403, 0.33358782037410006, -2.0199442776872707, -0.02055322262460635
2.1749883111412753, 3.4043702195097465, 0.12773928590514141, -0.7275543516681994, 0.774104580237395, -0.6319780813260445, -2.3749880113551756, 2.2980463799592314, 0.9555363021411185, -1.1556840118862468, 0.3563435129450828, 0.13218976200441188, -0.0279173882339516, 1.0746202930174322, 0.1978881279638988, -1.417492248103888, 1.7354819182105568, -1.1263673650863428, -1.6089736122223581, -0.7749780755670255, -2.655395174142675
2.184669811624274, -0.1608071872068298, -3.4058051784475327, 1.339214195656494, -2.3246639978565518, -0.5726677688652032, -0.14329561083504838, 0.5521359754013656, -3.808543318638627, -1.2378639543216587, -2.1918205976813114, -0.2818462840053088, 0.17001035842702433, 0.5316074843788788, 3.2305717229741826, 1.1193001948243382, -1.2499153612775162, -0.5306394151082627, 0.561158317248316, -0.14582011317549626, 1.415954843542381
-1.2977611871279868, 1.4417196856497116, 1.0084373157867765, 0.9395512769501232, -2.6144904519642234, 0.6854365748778509, 0.6985104830957197, 1.1326982167391275, -0.9396315236167927, 2.941631203641449, -0.47695991433282975, -0.051967750024769464, 0.923398315367738, -0.08307163166432292, -0.25732250672155826, 0.5029758910642, 1.5708892673445984, 2.4807726809041872, -2.1941120127803324, 0.8999340233816611, -0.8457923114235002
2.1854053635161046, 1.4451648949874063, 0.6291478095696662, -2.094531881707098, -0.6414424287760255, -3.3177300816882687, 2.2390082261315674, -0.9572883477657047, 2.741447880272733, -4.883104071602569, -1.3939083306731805, 0.6949102348250816, -1.8692746495103707, -0.8838118619095235, -0.45478693678459153, -0.08667885665725386, -0.9607198588215782, -0.7347080005020771, 0.6686875738953164, 1.3386040466058167, 0.8901798110325675
-0.698643085109743, -3.5873364907488967, -0.02432438202107175, 0.25590957349499127, 2.06066198838897, -0.9761787598079545, -2.4950614883542883, 0.4442093284985042, 4.090612720442881, 2.42784120836284, 2.138566069442196, 0.42581819653249914, 0.755293272096432, 1.4112010397560981, 0.1550683037889198, 2.1288374849643823, 0.713331142397994, -3.6994175220585266, -0.5414185372243456, -2.5170814306256903, -0.3470652865513438
-0.8906546678789906, -1.6419567684284093, -1.5032720716845347, 1.1252425088084337, -2.2660402916618803, -3.722267908829497, -3.1370913577250903, -3.1553430193862004, 0.07827119915499059, -2.8872440566688087, 3.191586669454095, 1.0488096479640143, 0.21579601521284444, -1.4856144718800472, -2.7591791260490237, -0.40276603772960373, -4.095229969678899, 4.690130508619542, -0.658204244506145
-3.2051285064273296, 0.6048447443007104, -4.238988867475583, -2.5963216813608603, -2.54489616501257, -3.101918375054297, 1.1197252741787596, 1.9783682635611544, -0.6710141603897292, -1.99094161508693, -2.088203587035873, 4.995251454466455, -1.3122542247568585, 2.171783675039687, -1.8761951720975383, -0.0021026846786261024, -2.0561240029087973, 2.722096513836387, -2.6815677362748787
0.24501020707687712, -0.18382366119757898, -1.8224910917879813, 4.394351925059207, -0.4473930702200214, -1.927335926594781, -0.44835072781199325, -5.41560451199239, -0.9809576232408094, -4.645916595001009, 1.3786968851292858, -3.0117805838578073, -2.07057053948476, 2.2108899687669674, -0.4852888206909693, 1.1434486262531574, 1.3140922932294448, -2.5329083059622417, -3.04004084546113
2.213616858363257, 1.098936601934279, -0.5481708098341419, -3.3977953247441715, -1.2691549148607209, -4.406196836137108, -0.3950137939918308, 3.209660663089178, -1.6132028763532495, -2.8105875184800495, -1.2688035318948963, -3.305303623181774, -1.847332045416621, 2.2511007358167383, -3.864918263933132, -0.005031351257352349, 1.7237134253475308, -2.2781133375953693, -1.6507383602183798
-0.553288972384898, -2.5567566521027385, -2.9536909249761845, -4.946865067004823, -4.88121086748237, 1.6170044415992177, -0.6375916925836533, -1.939328019506055, -1.1681131798838398, 0.10081001015806165, 2.7542125065011693, 2.418304253326753, -2.4520198676034872, -1.4990121406873649, -1.231654350976653, -3.0944761512799244, 2.849275680539892, 2.8446324834079206, -0.8488588730992744
1.994783802349415, -3.4055141547914047, -1.7831179160620019, -0.9386876881801727, -1.572667438770207, -3.7885405980829394, 3.171468279023486, -1.9011771297097833, -2.2499887403416907, 0.8462726447104671, -4.334498548162538, 1.8918963347080606, 1.4624389062958578, -0.6300129135684666, 1.8750491589402296, -2.649642305571976, 0.15264101041450862, 2.2615225184635874, -2.1424233823231105
-0.2072141631700082, 1.8874873095946394, -1.4738465882649634, 3.0478851473581154, -2.105393456142502, -0.6302564899647289, -1.200459456070051, -5.7518110625898755, -1.716266459018541, 1.790540516239606, -0.02848927597200555, -4.002263928833081, -0.7313138890993698, -1.6749404857583707, -2.7563628527640214, -4.882704775601932, 1.7600847530405999, 2.9037461393588653, -0.9726203828161893
0.34464217298671956, -0.7543593049427502, -0.15033320813064335, -3.4018866523914086, -1.5878792300499667, 2.322914949445608, 0.18062899335598112, -2.8944646598357457, -0.8753608291092707, 2.626760588469285, -4.371268010853648, -5.571155798777349, -0.3302197924113677, 1.9190222725629356, 0.7247149220915827, -2.122687355854649, 2.202370772078047, -2.490185415910755, -0.37683569055948296
-4.121834469695289, -1.9983313104858527, 2.510205050639649, 2.3716006660538285, -3.179586570391332, 1.9571636089165079, 0.2563357313073576, -1.9849625014648549, -2.178920499865091, -2.225243907056863, 0.6662732303370742, 4.722288527956854, -1.1526678495463352, -0.37974049210029037, -4.250113022822804, -0.10123101150696369, -2.183288289842809, -1.2545126080683433, -0.8818882441400367
-3.257902471189019, 0.366215193087339, 2.1695749629232584, -0.523688288146413, -1.2089176847368253, -4.623349793710874, -2.3674537258405635, -0.006407401011001474, -2.6127790213544726, -2.6095228989233807, -1.4875963886376047, 3.068298122563954, 4.300577081567832, 0.30311309041646983, 0.07924097523629522, -0.5310233571551072, -0.2662896407125683, -4.899983606937201, -1.2905145851848094
-2.141148425534771, 1.9769796300768192, 0.6808131601242501, 3.197521012450357, -1.4298062592062397, 3.4973486814249104, -1.1410014820262666, 2.715838677750975, -3.9289857408224336, -1.2122894169849032, 1.6088839540428623, -4.647571123473307, -1.716519989037792, -0.6277079020594817, -3.053177524843147, -0.421408197042246, -2.6788348461432974, -2.567677122063048, -2.429883030318485
-4.3131241223352115, 1.6558540437445746, -0.7310253032620037, -1.846195635330985, -0.27701474685979033, -1.3633807228456492, 0.03407129365466655, 1.997742876773432, -0.10547391367071172, -2.400727172127147, -2.05708873797999, -6.450444327461257, -1.9168618723679731, 0.2275013779879758, 3.3065678489947623, -0.874981712544434, -3.7523805330634876, -1.6519359870220007, -0.05104376499375141
-3.922487207728788, -2.298744839450716, 1.880410384322977, -1.2821837179818936, -1.6227579612100733, 3.805377258426819, -0.4148803784005671, -2.1239120151519226, -2.019128684470861, 1.178533711023137, 0.10490483807504543, 0.05661685630936767, -3.4633107777345535, -1.0482163257496266, 2.284950146563562, -3.5820669052958176, -4.414633481643811, 3.282312944704788, -1.2978769338000702
-2.3389652489420496, -6.543811449266769, 0.5013313091141965, -0.2921102458756686, -2.4227099297621635, 0.43032860548017937, 0.5873791316355691, 2.5746559465179866, -0.8034087062281982, 3.43417652524898, -3.165878092956339, 1.8463861856339636, 0.9056975975807157, -0.8775170469702789, 1.1203316630506892, -0.3487332332267993, -2.5938475842593722, -3.8121476065271707, -1.8038679313866195
-1.7079777874892486, -0.7987037500929501, 3.0737143128343782, 4.070776767410434, -1.0141725665465922, -1.3964139441531378, -0.8252947082431036, -3.738232666903601, -0.24470104108642618, -1.587774808896741, -0.1360757739257847, 0.15738457166500025, -1.2703646048139408, -0.07258380658817326, 3.9561527125153946, -4.766333073417426, 3.026514421581433, -3.0969934587232912, -3.4785660454278373
-1.165471280591254, -0.38133700744795057, 1.2216165937467427, -3.2747616960231634, -3.319827754146728, 2.3300581764172286, -0.1571543860591503, 2.0148432901599085, -3.399479311618538, -2.012257080364046, -2.6726545325324302, 2.189140456590398, -4.118460817846321, -1.518656003555198, 2.5355228642437706, 1.101857620795601, 5.1618938214244885, -2.3687705163888158, -3.103182114925249
-0.9537477094586262, -3.9638750050326506, 1.6798605307652856, -3.3503358768038987, -2.843192686036022, -4.202272201687066, 2.0915967561167426, -1.0685817102032864, 0.3076249871502366, 3.4662233319359097, 1.771535130861728, -4.827002842882449, -3.1572384255983863, 0.1742976290741049, -0.921957393128779, 0.4499429501261643, -1.8979852416540455, 1.154808909703373, 0.9974256772410933
